Language model created by QuickLM on Sat Mar 31 15:26:15 EDT 2018
Copyright (c) 1996-2010 Carnegie Mellon University and Alexander I. Rudnicky

The model is in standard ARPA format, designed by Doug Paul while he was at MITRE.

The code that was used to produce this language model is available in Open Source.
Please visit http://www.speech.cs.cmu.edu/tools/ for more information

The (fixed) discount mass is 0.5. The backoffs are computed using the ratio method.
This model based on a corpus of 10 sentences and 15 words

\data\
ngram 1=15
ngram 2=23
ngram 3=13

\1-grams:
-0.8195 </s> -0.3010
-0.8195 <s> -0.2297
-1.8195 ALOHOMORA -0.2297
-1.8195 AVADA -0.2944
-1.8195 EXIT -0.2297
-1.8195 EXPECTO -0.2944
-1.8195 EXPELLIARMUS -0.2297
-1.8195 KEDAVRA -0.2297
-1.8195 LEVIOSA -0.2297
-1.8195 LUMOS -0.2297
-1.8195 OBLIVIATE -0.2297
-1.8195 PATRONUM -0.2297
-1.8195 REDUCIO -0.2297
-1.8195 RIDDIKULUS -0.2297
-1.8195 WINGARDIUM -0.2944

\2-grams:
-1.3010 <s> ALOHOMORA 0.0000
-1.3010 <s> AVADA 0.0000
-1.3010 <s> EXIT 0.0000
-1.3010 <s> EXPECTO 0.0000
-1.3010 <s> EXPELLIARMUS 0.0000
-1.3010 <s> LUMOS 0.0000
-1.3010 <s> OBLIVIATE 0.0000
-1.3010 <s> REDUCIO 0.0000
-1.3010 <s> RIDDIKULUS 0.0000
-1.3010 <s> WINGARDIUM 0.0000
-0.3010 ALOHOMORA </s> -0.3010
-0.3010 AVADA KEDAVRA 0.0000
-0.3010 EXIT </s> -0.3010
-0.3010 EXPECTO PATRONUM 0.0000
-0.3010 EXPELLIARMUS </s> -0.3010
-0.3010 KEDAVRA </s> -0.3010
-0.3010 LEVIOSA </s> -0.3010
-0.3010 LUMOS </s> -0.3010
-0.3010 OBLIVIATE </s> -0.3010
-0.3010 PATRONUM </s> -0.3010
-0.3010 REDUCIO </s> -0.3010
-0.3010 RIDDIKULUS </s> -0.3010
-0.3010 WINGARDIUM LEVIOSA 0.0000

\3-grams:
-0.3010 <s> ALOHOMORA </s>
-0.3010 <s> AVADA KEDAVRA
-0.3010 <s> EXIT </s>
-0.3010 <s> EXPECTO PATRONUM
-0.3010 <s> EXPELLIARMUS </s>
-0.3010 <s> LUMOS </s>
-0.3010 <s> OBLIVIATE </s>
-0.3010 <s> REDUCIO </s>
-0.3010 <s> RIDDIKULUS </s>
-0.3010 <s> WINGARDIUM LEVIOSA
-0.3010 AVADA KEDAVRA </s>
-0.3010 EXPECTO PATRONUM </s>
-0.3010 WINGARDIUM LEVIOSA </s>

\end\
