Language model created by QuickLM on Sat Mar 31 01:46:54 EDT 2018
Copyright (c) 1996-2010 Carnegie Mellon University and Alexander I. Rudnicky

The model is in standard ARPA format, designed by Doug Paul while he was at MITRE.

The code that was used to produce this language model is available in Open Source.
Please visit http://www.speech.cs.cmu.edu/tools/ for more information

The (fixed) discount mass is 0.5. The backoffs are computed using the ratio method.
This model based on a corpus of 58 sentences and 98 words

\data\
ngram 1=98
ngram 2=183
ngram 3=224

\1-grams:
-2.8704 (C) -0.3004
-2.8704 (FIXED) -0.3004
-1.9162 -0.2314 -0.2548
-2.3933 -0.2929 -0.2548
-1.3790 -0.3010 -0.1646
-2.5694 -0.8293 -0.2029
-1.9673 -1.2041 -0.2548
-1.8290 -1.7324 -0.2707
-1.8290 0.0000 -0.2548
-2.8704 0.5. -0.2981
-2.8704 00:53:17 -0.3004
-2.8704 13 -0.3004
-2.8704 1996-2010 -0.3004
-2.8704 1=13 -0.2548
-2.8704 2018 -0.2548
-2.8704 2=19 -0.2548
-2.8704 31 -0.3004
-2.8704 3=11 -0.2548
-2.8704 8 -0.3004
-0.9953 </s> -0.2341
-0.9953 <s> -0.2279
-2.8704 A -0.3004
-2.8704 ALEXANDER -0.3004
-2.2683 ALOHOMORA -0.2415
-2.5694 AND -0.2999
-2.8704 ARE -0.3004
-2.8704 ARPA -0.3004
-2.8704 AT -0.3004
-2.1714 AVADA -0.2898
-2.8704 AVAILABLE -0.2999
-2.8704 BACKOFFS -0.3004
-2.8704 BASED -0.2999
-2.5694 BY -0.2999
-2.8704 CARNEGIE -0.3004
-2.8704 CODE -0.3004
-2.8704 COMPUTED -0.3004
-2.8704 COPYRIGHT -0.3004
-2.8704 CORPUS -0.3004
-2.8704 CREATED -0.2999
-2.8704 DESIGNED -0.2999
-2.8704 DISCOUNT -0.3004
-2.8704 DOUG -0.3004
-2.8704 EDT -0.3004
-2.1714 EXPECTO -0.2898
-2.2683 EXPELLIARMUS -0.2415
-2.8704 FOR -0.3004
-2.8704 FORMAT, -0.3004
-2.8704 HE -0.2999
-2.8704 HTTP://WWW.SPEECH.CS.CMU.EDU/TOOLS/ -0.3004
-2.8704 I. -0.3004
-2.5694 IN -0.2999
-2.8704 INFORMATION -0.2548
-2.3933 IS -0.2987
-2.1714 KEDAVRA -0.2415
-2.5694 LANGUAGE -0.2987
-2.1714 LEVIOSA -0.2415
-2.2683 LUMOS -0.2415
-2.8704 MAR -0.3004
-2.8704 MASS -0.2993
-2.8704 MELLON -0.3004
-2.8704 METHOD. -0.2548
-2.8704 MITRE. -0.2548
-2.2683 MODEL -0.2981
-2.8704 MORE -0.3004
-2.3933 NGRAM -0.2993
-2.2683 OBLIVIATE -0.2415
-2.8704 OF -0.3004
-2.5694 ON -0.2999
-2.8704 OPEN -0.3004
-2.1714 PATRONUM -0.2415
-2.8704 PAUL -0.3004
-2.8704 PLEASE -0.3004
-2.8704 PRODUCE -0.2999
-2.8704 QUICKLM -0.2999
-2.8704 RATIO -0.3004
-2.2683 RIDDIKULUS -0.2415
-2.8704 RUDNICKY -0.2548
-2.8704 SAT -0.3004
-2.8704 SENTENCES -0.2999
-2.8704 SOURCE. -0.2548
-2.8704 STANDARD -0.3004
-2.8704 THAT -0.2999
-2.1714 THE -0.2963
-2.5694 THIS -0.2975
-2.8704 TO -0.3004
-2.8704 UNIVERSITY -0.2999
-2.8704 USED -0.3004
-2.8704 USING -0.2981
-2.8704 VISIT -0.3004
-2.5694 WAS -0.2999
-2.8704 WHILE -0.3004
-2.1714 WINGARDIUM -0.2898
-2.8704 WORDS -0.2548
-2.8704 \1-GRAMS: -0.2548
-2.8704 \2-GRAMS: -0.2548
-2.8704 \3-GRAMS: -0.2548
-2.8704 \DATA\ -0.2548
-2.8704 \END\ -0.2548

\2-grams:
-0.3010 (C) 1996-2010 0.0000
-0.3010 (FIXED) DISCOUNT 0.0000
-0.3010 -0.2314 </s> -0.3010
-0.3010 -0.2929 </s> -0.3010
-0.8381 -0.3010 </s> -0.3010
-0.8893 -0.3010 <s> -0.2520
-1.7924 -0.3010 ALOHOMORA -0.1761
-1.4914 -0.3010 AVADA -0.1461
-1.4914 -0.3010 EXPECTO -0.1461
-1.7924 -0.3010 EXPELLIARMUS -0.1761
-1.7924 -0.3010 KEDAVRA -0.1461
-1.7924 -0.3010 LEVIOSA -0.1461
-1.7924 -0.3010 LUMOS -0.1761
-1.7924 -0.3010 OBLIVIATE -0.1761
-1.7924 -0.3010 PATRONUM -0.1461
-1.7924 -0.3010 RIDDIKULUS -0.1761
-1.4914 -0.3010 WINGARDIUM -0.1461
-0.6021 -0.8293 </s> -0.2742
-0.6021 -0.8293 <s> -0.2981
-0.3010 -1.2041 <s> -0.2520
-1.3424 -1.7324 ALOHOMORA -0.2430
-1.3424 -1.7324 AVADA -0.2553
-1.3424 -1.7324 EXPECTO -0.2553
-1.3424 -1.7324 EXPELLIARMUS -0.2430
-1.3424 -1.7324 KEDAVRA -0.2553
-1.3424 -1.7324 LEVIOSA -0.2553
-1.3424 -1.7324 LUMOS -0.2430
-1.3424 -1.7324 OBLIVIATE -0.2430
-1.3424 -1.7324 PATRONUM -0.2553
-1.3424 -1.7324 RIDDIKULUS -0.2430
-1.3424 -1.7324 WINGARDIUM -0.2553
-0.3010 0.0000 </s> -0.3010
-0.3010 0.5. THE -0.2553
-0.3010 00:53:17 EDT 0.0000
-0.3010 13 WORDS 0.0000
-0.3010 1996-2010 CARNEGIE 0.0000
-0.3010 1=13 </s> -0.3010
-0.3010 2018 </s> -0.3010
-0.3010 2=19 </s> -0.3010
-0.3010 31 00:53:17 0.0000
-0.3010 3=11 </s> -0.3010
-0.3010 8 SENTENCES 0.0000
-1.2218 </s> -0.3010 -0.2329
-1.2730 </s> </s> -0.3010
-2.1761 <s> -0.2314 0.0000
-0.8337 <s> -0.3010 -0.1107
-1.8751 <s> -0.8293 0.0000
-1.2730 <s> -1.2041 0.0000
-1.1347 <s> -1.7324 0.0000
-1.8751 <s> ALOHOMORA -0.0969
-1.8751 <s> AVADA -0.0792
-2.1761 <s> COPYRIGHT 0.0000
-1.8751 <s> EXPECTO -0.0792
-1.8751 <s> EXPELLIARMUS -0.0969
-2.1761 <s> LANGUAGE 0.0000
-1.8751 <s> LUMOS -0.0969
-1.6990 <s> NGRAM 0.0000
-1.8751 <s> OBLIVIATE -0.0969
-2.1761 <s> PLEASE 0.0000
-1.8751 <s> RIDDIKULUS -0.0969
-1.6990 <s> THE -0.1461
-2.1761 <s> THIS -0.1761
-1.8751 <s> WINGARDIUM -0.0792
-2.1761 <s> \1-GRAMS: 0.0000
-2.1761 <s> \2-GRAMS: 0.0000
-2.1761 <s> \3-GRAMS: 0.0000
-2.1761 <s> \DATA\ 0.0000
-2.1761 <s> \END\ 0.0000
-0.3010 A CORPUS 0.0000
-0.3010 ALEXANDER I. 0.0000
-0.9031 ALOHOMORA -0.2314 0.0000
-0.9031 ALOHOMORA 0.0000 0.0000
-0.6021 ALOHOMORA </s> -0.2488
-0.6021 AND 13 0.0000
-0.6021 AND ALEXANDER 0.0000
-0.3010 ARE COMPUTED 0.0000
-0.3010 ARPA FORMAT, 0.0000
-0.3010 AT MITRE. 0.0000
-1.0000 AVADA -0.2929 0.0000
-1.0000 AVADA 0.0000 0.0000
-0.5229 AVADA KEDAVRA -0.0792
-0.3010 AVAILABLE IN -0.1761
-0.3010 BACKOFFS ARE 0.0000
-0.3010 BASED ON -0.1761
-0.6021 BY DOUG 0.0000
-0.6021 BY QUICKLM 0.0000
-0.3010 CARNEGIE MELLON 0.0000
-0.3010 CODE THAT 0.0000
-0.3010 COMPUTED USING 0.0000
-0.3010 COPYRIGHT (C) 0.0000
-0.3010 CORPUS OF 0.0000
-0.3010 CREATED BY -0.1761
-0.3010 DESIGNED BY -0.1761
-0.3010 DISCOUNT MASS 0.0000
-0.3010 DOUG PAUL 0.0000
-0.3010 EDT 2018 0.0000
-1.0000 EXPECTO -0.2929 0.0000
-1.0000 EXPECTO 0.0000 0.0000
-0.5229 EXPECTO PATRONUM -0.0792
-0.9031 EXPELLIARMUS -0.2314 0.0000
-0.9031 EXPELLIARMUS 0.0000 0.0000
-0.6021 EXPELLIARMUS </s> -0.2488
-0.3010 FOR MORE 0.0000
-0.3010 FORMAT, DESIGNED 0.0000
-0.3010 HE WAS -0.1761
-0.3010 HTTP://WWW.SPEECH.CS.CMU.EDU/TOOLS/ FOR 0.0000
-0.3010 I. RUDNICKY 0.0000
-0.6021 IN OPEN 0.0000
-0.6021 IN STANDARD 0.0000
-0.3010 INFORMATION </s> -0.3010
-0.7782 IS 0.5. 0.0000
-0.7782 IS AVAILABLE 0.0000
-0.7782 IS IN -0.1761
-1.0000 KEDAVRA -0.2314 0.0000
-1.0000 KEDAVRA 0.0000 0.0000
-0.5229 KEDAVRA </s> -0.2488
-0.3010 LANGUAGE MODEL -0.0969
-1.0000 LEVIOSA -0.2314 0.0000
-1.0000 LEVIOSA 0.0000 0.0000
-0.5229 LEVIOSA </s> -0.2488
-0.9031 LUMOS -0.2314 0.0000
-0.9031 LUMOS 0.0000 0.0000
-0.6021 LUMOS </s> -0.2488
-0.3010 MAR 31 0.0000
-0.3010 MASS IS -0.2218
-0.3010 MELLON UNIVERSITY 0.0000
-0.3010 METHOD. </s> -0.3010
-0.3010 MITRE. </s> -0.3010
-0.9031 MODEL BASED 0.0000
-0.9031 MODEL CREATED 0.0000
-0.6021 MODEL IS -0.1249
-0.3010 MORE INFORMATION 0.0000
-0.7782 NGRAM 1=13 0.0000
-0.7782 NGRAM 2=19 0.0000
-0.7782 NGRAM 3=11 0.0000
-0.9031 OBLIVIATE -0.2314 0.0000
-0.9031 OBLIVIATE 0.0000 0.0000
-0.6021 OBLIVIATE </s> -0.2488
-0.3010 OF 8 0.0000
-0.6021 ON A 0.0000
-0.6021 ON SAT 0.0000
-0.3010 OPEN SOURCE. 0.0000
-1.0000 PATRONUM -0.2314 0.0000
-1.0000 PATRONUM 0.0000 0.0000
-0.5229 PATRONUM </s> -0.2488
-0.3010 PAUL WHILE 0.0000
-0.3010 PLEASE VISIT 0.0000
-0.3010 PRODUCE THIS -0.1761
-0.3010 QUICKLM ON -0.1761
-0.3010 RATIO METHOD. 0.0000
-0.9031 RIDDIKULUS -0.2314 0.0000
-0.9031 RIDDIKULUS 0.0000 0.0000
-0.6021 RIDDIKULUS </s> -0.2488
-0.3010 RUDNICKY </s> -0.3010
-0.3010 SAT MAR 0.0000
-0.3010 SENTENCES AND -0.1761
-0.3010 SOURCE. </s> -0.3010
-0.3010 STANDARD ARPA 0.0000
-0.3010 THAT WAS -0.1761
-1.0000 THE (FIXED) 0.0000
-1.0000 THE BACKOFFS 0.0000
-1.0000 THE CODE 0.0000
-1.0000 THE MODEL -0.1761
-1.0000 THE RATIO 0.0000
-0.6021 THIS LANGUAGE 0.0000
-0.6021 THIS MODEL -0.2430
-0.3010 TO PRODUCE 0.0000
-0.3010 UNIVERSITY AND -0.1761
-0.3010 USED TO 0.0000
-0.3010 USING THE -0.2553
-0.3010 VISIT HTTP://WWW.SPEECH.CS.CMU.EDU/TOOLS/ 0.0000
-0.6021 WAS AT 0.0000
-0.6021 WAS USED 0.0000
-0.3010 WHILE HE 0.0000
-1.0000 WINGARDIUM -0.2929 0.0000
-1.0000 WINGARDIUM 0.0000 0.0000
-0.5229 WINGARDIUM LEVIOSA -0.0792
-0.3010 WORDS </s> -0.3010
-0.3010 \1-GRAMS: </s> -0.3010
-0.3010 \2-GRAMS: </s> -0.3010
-0.3010 \3-GRAMS: </s> -0.3010
-0.3010 \DATA\ </s> -0.3010
-0.3010 \END\ </s> -0.3010

\3-grams:
-0.3010 (C) 1996-2010 CARNEGIE
-0.3010 (FIXED) DISCOUNT MASS
-1.2041 -0.3010 <s> ALOHOMORA
-1.2041 -0.3010 <s> AVADA
-1.2041 -0.3010 <s> EXPECTO
-1.2041 -0.3010 <s> EXPELLIARMUS
-1.2041 -0.3010 <s> LUMOS
-1.2041 -0.3010 <s> OBLIVIATE
-1.2041 -0.3010 <s> RIDDIKULUS
-1.2041 -0.3010 <s> WINGARDIUM
-0.3010 -0.3010 ALOHOMORA </s>
-0.3010 -0.3010 AVADA KEDAVRA
-0.3010 -0.3010 EXPECTO PATRONUM
-0.3010 -0.3010 EXPELLIARMUS </s>
-0.3010 -0.3010 KEDAVRA </s>
-0.3010 -0.3010 LEVIOSA </s>
-0.3010 -0.3010 LUMOS </s>
-0.3010 -0.3010 OBLIVIATE </s>
-0.3010 -0.3010 PATRONUM </s>
-0.3010 -0.3010 RIDDIKULUS </s>
-0.3010 -0.3010 WINGARDIUM LEVIOSA
-0.3010 -0.8293 </s> -0.3010
-0.3010 -0.8293 <s> -0.2314
-1.2041 -1.2041 <s> ALOHOMORA
-1.2041 -1.2041 <s> AVADA
-1.2041 -1.2041 <s> EXPECTO
-1.2041 -1.2041 <s> EXPELLIARMUS
-1.2041 -1.2041 <s> LUMOS
-1.2041 -1.2041 <s> OBLIVIATE
-1.2041 -1.2041 <s> RIDDIKULUS
-1.2041 -1.2041 <s> WINGARDIUM
-0.3010 -1.7324 ALOHOMORA -0.2314
-0.3010 -1.7324 AVADA -0.2929
-0.3010 -1.7324 EXPECTO -0.2929
-0.3010 -1.7324 EXPELLIARMUS -0.2314
-0.3010 -1.7324 KEDAVRA -0.2314
-0.3010 -1.7324 LEVIOSA -0.2314
-0.3010 -1.7324 LUMOS -0.2314
-0.3010 -1.7324 OBLIVIATE -0.2314
-0.3010 -1.7324 PATRONUM -0.2314
-0.3010 -1.7324 RIDDIKULUS -0.2314
-0.3010 -1.7324 WINGARDIUM -0.2929
-0.3010 0.5. THE BACKOFFS
-0.3010 00:53:17 EDT 2018
-0.3010 13 WORDS </s>
-0.3010 1996-2010 CARNEGIE MELLON
-0.3010 31 00:53:17 EDT
-0.3010 8 SENTENCES AND
-0.3010 </s> -0.3010 </s>
-0.3010 <s> -0.2314 </s>
-0.7404 <s> -0.3010 <s>
-1.6435 <s> -0.3010 ALOHOMORA
-1.3424 <s> -0.3010 AVADA
-1.3424 <s> -0.3010 EXPECTO
-1.6435 <s> -0.3010 EXPELLIARMUS
-1.6435 <s> -0.3010 KEDAVRA
-1.6435 <s> -0.3010 LEVIOSA
-1.6435 <s> -0.3010 LUMOS
-1.6435 <s> -0.3010 OBLIVIATE
-1.6435 <s> -0.3010 PATRONUM
-1.6435 <s> -0.3010 RIDDIKULUS
-1.3424 <s> -0.3010 WINGARDIUM
-0.6021 <s> -0.8293 </s>
-0.6021 <s> -0.8293 <s>
-0.3010 <s> -1.2041 <s>
-1.3424 <s> -1.7324 ALOHOMORA
-1.3424 <s> -1.7324 AVADA
-1.3424 <s> -1.7324 EXPECTO
-1.3424 <s> -1.7324 EXPELLIARMUS
-1.3424 <s> -1.7324 KEDAVRA
-1.3424 <s> -1.7324 LEVIOSA
-1.3424 <s> -1.7324 LUMOS
-1.3424 <s> -1.7324 OBLIVIATE
-1.3424 <s> -1.7324 PATRONUM
-1.3424 <s> -1.7324 RIDDIKULUS
-1.3424 <s> -1.7324 WINGARDIUM
-0.6021 <s> ALOHOMORA 0.0000
-0.6021 <s> ALOHOMORA </s>
-0.6021 <s> AVADA 0.0000
-0.6021 <s> AVADA KEDAVRA
-0.3010 <s> COPYRIGHT (C)
-0.6021 <s> EXPECTO 0.0000
-0.6021 <s> EXPECTO PATRONUM
-0.6021 <s> EXPELLIARMUS 0.0000
-0.6021 <s> EXPELLIARMUS </s>
-0.3010 <s> LANGUAGE MODEL
-0.6021 <s> LUMOS 0.0000
-0.6021 <s> LUMOS </s>
-0.7782 <s> NGRAM 1=13
-0.7782 <s> NGRAM 2=19
-0.7782 <s> NGRAM 3=11
-0.6021 <s> OBLIVIATE 0.0000
-0.6021 <s> OBLIVIATE </s>
-0.3010 <s> PLEASE VISIT
-0.6021 <s> RIDDIKULUS 0.0000
-0.6021 <s> RIDDIKULUS </s>
-0.7782 <s> THE (FIXED)
-0.7782 <s> THE CODE
-0.7782 <s> THE MODEL
-0.3010 <s> THIS MODEL
-0.6021 <s> WINGARDIUM 0.0000
-0.6021 <s> WINGARDIUM LEVIOSA
-0.3010 <s> \1-GRAMS: </s>
-0.3010 <s> \2-GRAMS: </s>
-0.3010 <s> \3-GRAMS: </s>
-0.3010 <s> \DATA\ </s>
-0.3010 <s> \END\ </s>
-0.3010 A CORPUS OF
-0.3010 ALEXANDER I. RUDNICKY
-0.3010 ALOHOMORA -0.2314 </s>
-0.3010 ALOHOMORA 0.0000 </s>
-0.6021 ALOHOMORA </s> -0.3010
-0.6021 ALOHOMORA </s> </s>
-0.3010 AND 13 WORDS
-0.3010 AND ALEXANDER I.
-0.3010 ARE COMPUTED USING
-0.3010 ARPA FORMAT, DESIGNED
-0.3010 AT MITRE. </s>
-0.3010 AVADA -0.2929 </s>
-0.3010 AVADA 0.0000 </s>
-0.7782 AVADA KEDAVRA 0.0000
-0.4771 AVADA KEDAVRA </s>
-0.3010 AVAILABLE IN OPEN
-0.3010 BACKOFFS ARE COMPUTED
-0.3010 BASED ON A
-0.3010 BY DOUG PAUL
-0.3010 BY QUICKLM ON
-0.3010 CARNEGIE MELLON UNIVERSITY
-0.3010 CODE THAT WAS
-0.3010 COMPUTED USING THE
-0.3010 COPYRIGHT (C) 1996-2010
-0.3010 CORPUS OF 8
-0.3010 CREATED BY QUICKLM
-0.3010 DESIGNED BY DOUG
-0.3010 DISCOUNT MASS IS
-0.3010 DOUG PAUL WHILE
-0.3010 EDT 2018 </s>
-0.3010 EXPECTO -0.2929 </s>
-0.3010 EXPECTO 0.0000 </s>
-0.7782 EXPECTO PATRONUM 0.0000
-0.4771 EXPECTO PATRONUM </s>
-0.3010 EXPELLIARMUS -0.2314 </s>
-0.3010 EXPELLIARMUS 0.0000 </s>
-0.6021 EXPELLIARMUS </s> -0.3010
-0.6021 EXPELLIARMUS </s> </s>
-0.3010 FOR MORE INFORMATION
-0.3010 FORMAT, DESIGNED BY
-0.3010 HE WAS AT
-0.3010 HTTP://WWW.SPEECH.CS.CMU.EDU/TOOLS/ FOR MORE
-0.3010 I. RUDNICKY </s>
-0.3010 IN OPEN SOURCE.
-0.3010 IN STANDARD ARPA
-0.3010 IS 0.5. THE
-0.3010 IS AVAILABLE IN
-0.3010 IS IN STANDARD
-0.3010 KEDAVRA -0.2314 </s>
-0.3010 KEDAVRA 0.0000 </s>
-0.7782 KEDAVRA </s> -0.3010
-0.7782 KEDAVRA </s> </s>
-0.6021 LANGUAGE MODEL CREATED
-0.6021 LANGUAGE MODEL IS
-0.3010 LEVIOSA -0.2314 </s>
-0.3010 LEVIOSA 0.0000 </s>
-0.7782 LEVIOSA </s> -0.3010
-0.7782 LEVIOSA </s> </s>
-0.3010 LUMOS -0.2314 </s>
-0.3010 LUMOS 0.0000 </s>
-0.6021 LUMOS </s> -0.3010
-0.6021 LUMOS </s> </s>
-0.3010 MAR 31 00:53:17
-0.3010 MASS IS 0.5.
-0.3010 MELLON UNIVERSITY AND
-0.3010 MODEL BASED ON
-0.3010 MODEL CREATED BY
-0.6021 MODEL IS AVAILABLE
-0.6021 MODEL IS IN
-0.3010 MORE INFORMATION </s>
-0.3010 NGRAM 1=13 </s>
-0.3010 NGRAM 2=19 </s>
-0.3010 NGRAM 3=11 </s>
-0.3010 OBLIVIATE -0.2314 </s>
-0.3010 OBLIVIATE 0.0000 </s>
-0.6021 OBLIVIATE </s> -0.3010
-0.6021 OBLIVIATE </s> </s>
-0.3010 OF 8 SENTENCES
-0.3010 ON A CORPUS
-0.3010 ON SAT MAR
-0.3010 OPEN SOURCE. </s>
-0.3010 PATRONUM -0.2314 </s>
-0.3010 PATRONUM 0.0000 </s>
-0.7782 PATRONUM </s> -0.3010
-0.7782 PATRONUM </s> </s>
-0.3010 PAUL WHILE HE
-0.3010 PLEASE VISIT HTTP://WWW.SPEECH.CS.CMU.EDU/TOOLS/
-0.3010 PRODUCE THIS LANGUAGE
-0.3010 QUICKLM ON SAT
-0.3010 RATIO METHOD. </s>
-0.3010 RIDDIKULUS -0.2314 </s>
-0.3010 RIDDIKULUS 0.0000 </s>
-0.6021 RIDDIKULUS </s> -0.3010
-0.6021 RIDDIKULUS </s> </s>
-0.3010 SAT MAR 31
-0.3010 SENTENCES AND 13
-0.3010 STANDARD ARPA FORMAT,
-0.3010 THAT WAS USED
-0.3010 THE (FIXED) DISCOUNT
-0.3010 THE BACKOFFS ARE
-0.3010 THE CODE THAT
-0.3010 THE MODEL IS
-0.3010 THE RATIO METHOD.
-0.3010 THIS LANGUAGE MODEL
-0.3010 THIS MODEL BASED
-0.3010 TO PRODUCE THIS
-0.3010 UNIVERSITY AND ALEXANDER
-0.3010 USED TO PRODUCE
-0.3010 USING THE RATIO
-0.3010 VISIT HTTP://WWW.SPEECH.CS.CMU.EDU/TOOLS/ FOR
-0.3010 WAS AT MITRE.
-0.3010 WAS USED TO
-0.3010 WHILE HE WAS
-0.3010 WINGARDIUM -0.2929 </s>
-0.3010 WINGARDIUM 0.0000 </s>
-0.7782 WINGARDIUM LEVIOSA 0.0000
-0.4771 WINGARDIUM LEVIOSA </s>

\end\
